digraph Tree {
node [shape=box] ;
0 [label="ua_agent_version_major_6 <= 0.5\ngini = 0.462\nsamples = 28411\nvalue = [29795, 1201, 13840]\nclass = HT"] ;
1 [label="ua_agent_version_major_605 <= 0.5\ngini = 0.486\nsamples = 25784\nvalue = [25651, 1201, 13840]\nclass = HT"] ;
0 -> 1 [labeldistance=2.5, labelangle=45, headlabel="True"] ;
2 [label="ua_agent_version_major_10 <= 0.5\ngini = 0.488\nsamples = 25527\nvalue = [25250, 1201, 13840]\nclass = HT"] ;
1 -> 2 ;
3 [label="ua_agent_name_Firefox <= 0.5\ngini = 0.493\nsamples = 24999\nvalue = [24411, 1201, 13840]\nclass = HT"] ;
2 -> 3 ;
4 [label="ua_agent_name_UIWebView <= 0.5\ngini = 0.502\nsamples = 24010\nvalue = [22876, 1201, 13840]\nclass = HT"] ;
3 -> 4 ;
5 [label="ua_agent_name_Chrome <= 0.5\ngini = 0.504\nsamples = 23754\nvalue = [22475, 1201, 13840]\nclass = HT"] ;
4 -> 5 ;
6 [label="ua_agent_version_major_2 <= 0.5\ngini = 0.54\nsamples = 17825\nvalue = [13044, 1201, 13840]\nclass = NHT-search"] ;
5 -> 6 ;
7 [label="ua_agent_version_major_8 <= 0.5\ngini = 0.174\nsamples = 9071\nvalue = [12920, 1140, 216]\nclass = HT"] ;
6 -> 7 ;
8 [label="ua_agent_version_major_4 <= 0.5\ngini = 0.184\nsamples = 8541\nvalue = [12088, 1140, 216]\nclass = HT"] ;
7 -> 8 ;
9 [label="ua_agent_version_major_1 <= 0.5\ngini = 0.162\nsamples = 8410\nvalue = [12047, 1140, 35]\nclass = HT"] ;
8 -> 9 ;
10 [label="ua_agent_version_major_5 <= 0.5\ngini = 0.145\nsamples = 8312\nvalue = [12030, 1002, 26]\nclass = HT"] ;
9 -> 10 ;
11 [label="ua_agent_version_major_AdsBot-Google-Mobile <= 0.5\ngini = 0.133\nsamples = 8193\nvalue = [11972, 896, 26]\nclass = HT"] ;
10 -> 11 ;
12 [label="ua_agent_name_Applebot <= 0.5\ngini = 0.028\nsamples = 7718\nvalue = [11972, 146, 26]\nclass = HT"] ;
11 -> 12 ;
13 [label="ua_agent_version_major_49 <= 0.5\ngini = 0.008\nsamples = 7647\nvalue = [11972, 21, 26]\nclass = HT"] ;
12 -> 13 ;
14 [label="ua_agent_name_Chromium <= 0.5\ngini = 0.008\nsamples = 7639\nvalue = [11960, 21, 26]\nclass = HT"] ;
13 -> 14 ;
15 [label="ua_agent_version_major_9 <= 0.5\ngini = 0.008\nsamples = 7629\nvalue = [11943, 21, 26]\nclass = HT"] ;
14 -> 15 ;
16 [label="ua_agent_name_Hacker <= 0.5\ngini = 0.008\nsamples = 7301\nvalue = [11423, 21, 26]\nclass = HT"] ;
15 -> 16 ;
17 [label="ua_agent_name_SamsungBrowser <= 0.5\ngini = 0.009\nsamples = 6744\nvalue = [10544, 21, 26]\nclass = HT"] ;
16 -> 17 ;
18 [label="ua_agent_name_Safari <= 0.5\ngini = 0.01\nsamples = 5866\nvalue = [9188, 21, 26]\nclass = HT"] ;
17 -> 18 ;
19 [label="ua_agent_version_major_17 <= 0.5\ngini = 0.03\nsamples = 1974\nvalue = [3052, 21, 26]\nclass = HT"] ;
18 -> 19 ;
20 [label="ua_agent_name_Edge <= 0.5\ngini = 0.038\nsamples = 1529\nvalue = [2376, 21, 26]\nclass = HT"] ;
19 -> 20 ;
21 [label="ua_agent_version_major_?? <= 0.5\ngini = 0.041\nsamples = 1428\nvalue = [2219, 21, 26]\nclass = HT"] ;
20 -> 21 ;
22 [label="ua_agent_name_YandexBot <= 0.5\ngini = 0.038\nsamples = 1423\nvalue = [2214, 17, 26]\nclass = HT"] ;
21 -> 22 ;
23 [label="ua_agent_version_major_2~bl <= 0.5\ngini = 0.015\nsamples = 1409\nvalue = [2214, 17, 0]\nclass = HT"] ;
22 -> 23 ;
24 [label="ua_agent_version_major_67 <= 0.5\ngini = 0.003\nsamples = 1400\nvalue = [2214, 3, 0]\nclass = HT"] ;
23 -> 24 ;
25 [label="ua_agent_version_major_AdsBot-Google <= 0.5\ngini = 0.003\nsamples = 1096\nvalue = [1722, 3, 0]\nclass = HT"] ;
24 -> 25 ;
26 [label="ua_agent_version_major_11 <= 0.5\ngini = 0.007\nsamples = 549\nvalue = [846, 3, 0]\nclass = HT"] ;
25 -> 26 ;
27 [label="ua_agent_version_major_12 <= 0.5\ngini = 0.042\nsamples = 92\nvalue = [137, 3, 0]\nclass = HT"] ;
26 -> 27 ;
28 [label="ua_agent_version_major_54 <= 0.5\ngini = 0.044\nsamples = 87\nvalue = [131, 3, 0]\nclass = HT"] ;
27 -> 28 ;
29 [label="ua_agent_name_WhatsApp <= 0.5\ngini = 0.054\nsamples = 71\nvalue = [105, 3, 0]\nclass = HT"] ;
28 -> 29 ;
30 [label="gini = 0.0\nsamples = 69\nvalue = [105, 0, 0]\nclass = HT"] ;
29 -> 30 ;
31 [label="gini = 0.0\nsamples = 2\nvalue = [0, 3, 0]\nclass = NHT-other"] ;
29 -> 31 ;
32 [label="gini = 0.0\nsamples = 16\nvalue = [26, 0, 0]\nclass = HT"] ;
28 -> 32 ;
33 [label="gini = 0.0\nsamples = 5\nvalue = [6, 0, 0]\nclass = HT"] ;
27 -> 33 ;
34 [label="gini = 0.0\nsamples = 457\nvalue = [709, 0, 0]\nclass = HT"] ;
26 -> 34 ;
35 [label="gini = 0.0\nsamples = 547\nvalue = [876, 0, 0]\nclass = HT"] ;
25 -> 35 ;
36 [label="gini = 0.0\nsamples = 304\nvalue = [492, 0, 0]\nclass = HT"] ;
24 -> 36 ;
37 [label="gini = 0.0\nsamples = 9\nvalue = [0, 14, 0]\nclass = NHT-other"] ;
23 -> 37 ;
38 [label="gini = 0.0\nsamples = 14\nvalue = [0, 0, 26]\nclass = NHT-search"] ;
22 -> 38 ;
39 [label="ua_agent_name_Mediatoolkitbot <= 0.5\ngini = 0.494\nsamples = 5\nvalue = [5, 4, 0]\nclass = HT"] ;
21 -> 39 ;
40 [label="ua_agent_name_TelegramBot <= 0.5\ngini = 0.49\nsamples = 4\nvalue = [3, 4, 0]\nclass = NHT-other"] ;
39 -> 40 ;
41 [label="gini = 0.0\nsamples = 3\nvalue = [0, 4, 0]\nclass = NHT-other"] ;
40 -> 41 ;
42 [label="gini = 0.0\nsamples = 1\nvalue = [3, 0, 0]\nclass = HT"] ;
40 -> 42 ;
43 [label="gini = 0.0\nsamples = 1\nvalue = [2, 0, 0]\nclass = HT"] ;
39 -> 43 ;
44 [label="gini = 0.0\nsamples = 101\nvalue = [157, 0, 0]\nclass = HT"] ;
20 -> 44 ;
45 [label="gini = 0.0\nsamples = 445\nvalue = [676, 0, 0]\nclass = HT"] ;
19 -> 45 ;
46 [label="gini = 0.0\nsamples = 3892\nvalue = [6136, 0, 0]\nclass = HT"] ;
18 -> 46 ;
47 [label="gini = 0.0\nsamples = 878\nvalue = [1356, 0, 0]\nclass = HT"] ;
17 -> 47 ;
48 [label="gini = 0.0\nsamples = 557\nvalue = [879, 0, 0]\nclass = HT"] ;
16 -> 48 ;
49 [label="gini = 0.0\nsamples = 328\nvalue = [520, 0, 0]\nclass = HT"] ;
15 -> 49 ;
50 [label="gini = 0.0\nsamples = 10\nvalue = [17, 0, 0]\nclass = HT"] ;
14 -> 50 ;
51 [label="gini = 0.0\nsamples = 8\nvalue = [12, 0, 0]\nclass = HT"] ;
13 -> 51 ;
52 [label="gini = 0.0\nsamples = 71\nvalue = [0, 125, 0]\nclass = NHT-other"] ;
12 -> 52 ;
53 [label="gini = 0.0\nsamples = 475\nvalue = [0, 750, 0]\nclass = NHT-other"] ;
11 -> 53 ;
54 [label="ua_agent_name_Netscape <= 0.5\ngini = 0.457\nsamples = 119\nvalue = [58, 106, 0]\nclass = NHT-other"] ;
10 -> 54 ;
55 [label="ua_agent_name_Safari <= 0.5\ngini = 0.309\nsamples = 97\nvalue = [25, 106, 0]\nclass = NHT-other"] ;
54 -> 55 ;
56 [label="ua_agent_name_SamsungBrowser <= 0.5\ngini = 0.158\nsamples = 85\nvalue = [10, 106, 0]\nclass = NHT-other"] ;
55 -> 56 ;
57 [label="gini = 0.0\nsamples = 77\nvalue = [0, 106, 0]\nclass = NHT-other"] ;
56 -> 57 ;
58 [label="gini = 0.0\nsamples = 8\nvalue = [10, 0, 0]\nclass = HT"] ;
56 -> 58 ;
59 [label="gini = 0.0\nsamples = 12\nvalue = [15, 0, 0]\nclass = HT"] ;
55 -> 59 ;
60 [label="gini = 0.0\nsamples = 22\nvalue = [33, 0, 0]\nclass = HT"] ;
54 -> 60 ;
61 [label="ua_agent_name_Dalvik <= 0.5\ngini = 0.278\nsamples = 98\nvalue = [17, 138, 9]\nclass = NHT-other"] ;
9 -> 61 ;
62 [label="ua_agent_name_Vivaldi <= 0.5\ngini = 0.181\nsamples = 92\nvalue = [6, 138, 9]\nclass = NHT-other"] ;
61 -> 62 ;
63 [label="ua_agent_name_Pinterestbot <= 0.5\ngini = 0.138\nsamples = 90\nvalue = [2, 138, 9]\nclass = NHT-other"] ;
62 -> 63 ;
64 [label="ua_agent_name_LinkedInBot <= 0.5\ngini = 0.157\nsamples = 78\nvalue = [2, 119, 9]\nclass = NHT-other"] ;
63 -> 64 ;
65 [label="ua_agent_name_Gluten Free Crawler <= 0.5\ngini = 0.131\nsamples = 77\nvalue = [0, 119, 9]\nclass = NHT-other"] ;
64 -> 65 ;
66 [label="ua_agent_name_facebookexternalhit <= 0.5\ngini = 0.144\nsamples = 70\nvalue = [0, 106, 9]\nclass = NHT-other"] ;
65 -> 66 ;
67 [label="ua_agent_name_SemrushBot <= 0.5\ngini = 0.3\nsamples = 33\nvalue = [0, 40, 9]\nclass = NHT-other"] ;
66 -> 67 ;
68 [label="ua_agent_name_Googlebot-Image <= 0.5\ngini = 0.31\nsamples = 32\nvalue = [0, 38, 9]\nclass = NHT-other"] ;
67 -> 68 ;
69 [label="gini = 0.0\nsamples = 27\nvalue = [0, 38, 0]\nclass = NHT-other"] ;
68 -> 69 ;
70 [label="gini = 0.0\nsamples = 5\nvalue = [0, 0, 9]\nclass = NHT-search"] ;
68 -> 70 ;
71 [label="gini = 0.0\nsamples = 1\nvalue = [0, 2, 0]\nclass = NHT-other"] ;
67 -> 71 ;
72 [label="gini = 0.0\nsamples = 37\nvalue = [0, 66, 0]\nclass = NHT-other"] ;
66 -> 72 ;
73 [label="gini = 0.0\nsamples = 7\nvalue = [0, 13, 0]\nclass = NHT-other"] ;
65 -> 73 ;
74 [label="gini = 0.0\nsamples = 1\nvalue = [2, 0, 0]\nclass = HT"] ;
64 -> 74 ;
75 [label="gini = 0.0\nsamples = 12\nvalue = [0, 19, 0]\nclass = NHT-other"] ;
63 -> 75 ;
76 [label="gini = 0.0\nsamples = 2\nvalue = [4, 0, 0]\nclass = HT"] ;
62 -> 76 ;
77 [label="gini = 0.0\nsamples = 6\nvalue = [11, 0, 0]\nclass = HT"] ;
61 -> 77 ;
78 [label="ua_agent_name_Sogou web spider <= 0.5\ngini = 0.301\nsamples = 131\nvalue = [41, 0, 181]\nclass = NHT-search"] ;
8 -> 78 ;
79 [label="gini = 0.0\nsamples = 23\nvalue = [41, 0, 0]\nclass = HT"] ;
78 -> 79 ;
80 [label="gini = 0.0\nsamples = 108\nvalue = [0, 0, 181]\nclass = NHT-search"] ;
78 -> 80 ;
81 [label="gini = 0.0\nsamples = 530\nvalue = [832, 0, 0]\nclass = HT"] ;
7 -> 81 ;
82 [label="ua_agent_name_Discordbot <= 0.5\ngini = 0.027\nsamples = 8754\nvalue = [124, 61, 13624]\nclass = NHT-search"] ;
6 -> 82 ;
83 [label="ua_agent_name_Dalvik <= 0.5\ngini = 0.026\nsamples = 8753\nvalue = [124, 60, 13624]\nclass = NHT-search"] ;
82 -> 83 ;
84 [label="ua_agent_name_WhatsApp <= 0.5\ngini = 0.024\nsamples = 8743\nvalue = [104, 60, 13624]\nclass = NHT-search"] ;
83 -> 84 ;
85 [label="ua_agent_name_Googlebot <= 0.5\ngini = 0.019\nsamples = 8720\nvalue = [104, 27, 13624]\nclass = NHT-search"] ;
84 -> 85 ;
86 [label="ua_agent_name_Bingbot <= 0.5\ngini = 0.327\nsamples = 81\nvalue = [104, 27, 0]\nclass = HT"] ;
85 -> 86 ;
87 [label="ua_agent_name_SamsungBrowser <= 0.5\ngini = 0.459\nsamples = 25\nvalue = [15, 27, 0]\nclass = NHT-other"] ;
86 -> 87 ;
88 [label="gini = 0.0\nsamples = 17\nvalue = [0, 27, 0]\nclass = NHT-other"] ;
87 -> 88 ;
89 [label="gini = 0.0\nsamples = 8\nvalue = [15, 0, 0]\nclass = HT"] ;
87 -> 89 ;
90 [label="gini = 0.0\nsamples = 56\nvalue = [89, 0, 0]\nclass = HT"] ;
86 -> 90 ;
91 [label="gini = 0.0\nsamples = 8639\nvalue = [0, 0, 13624]\nclass = NHT-search"] ;
85 -> 91 ;
92 [label="gini = 0.0\nsamples = 23\nvalue = [0, 33, 0]\nclass = NHT-other"] ;
84 -> 92 ;
93 [label="gini = 0.0\nsamples = 10\nvalue = [20, 0, 0]\nclass = HT"] ;
83 -> 93 ;
94 [label="gini = 0.0\nsamples = 1\nvalue = [0, 1, 0]\nclass = NHT-other"] ;
82 -> 94 ;
95 [label="gini = 0.0\nsamples = 5929\nvalue = [9431, 0, 0]\nclass = HT"] ;
5 -> 95 ;
96 [label="gini = 0.0\nsamples = 256\nvalue = [401, 0, 0]\nclass = HT"] ;
4 -> 96 ;
97 [label="gini = 0.0\nsamples = 989\nvalue = [1535, 0, 0]\nclass = HT"] ;
3 -> 97 ;
98 [label="gini = 0.0\nsamples = 528\nvalue = [839, 0, 0]\nclass = HT"] ;
2 -> 98 ;
99 [label="gini = 0.0\nsamples = 257\nvalue = [401, 0, 0]\nclass = HT"] ;
1 -> 99 ;
100 [label="gini = 0.0\nsamples = 2627\nvalue = [4144, 0, 0]\nclass = HT"] ;
0 -> 100 [labeldistance=2.5, labelangle=-45, headlabel="False"] ;
}