digraph Tree {
node [shape=box] ;
0 [label="X[119] <= 0.5\ngini = 0.461\nsamples = 28427\nvalue = [29920, 1243, 13673]"] ;
1 [label="X[37] <= 0.5\ngini = 0.442\nsamples = 27935\nvalue = [29920, 441, 13673]"] ;
0 -> 1 [labeldistance=2.5, labelangle=45, headlabel="True"] ;
2 [label="X[111] <= 0.5\ngini = 0.451\nsamples = 26823\nvalue = [28174, 441, 13673]"] ;
1 -> 2 ;
3 [label="X[23] <= 0.5\ngini = 0.453\nsamples = 26649\nvalue = [27894, 441, 13673]"] ;
2 -> 3 ;
4 [label="X[118] <= 0.5\ngini = 0.458\nsamples = 26118\nvalue = [27057, 441, 13673]"] ;
3 -> 4 ;
5 [label="X[104] <= 0.5\ngini = 0.462\nsamples = 25582\nvalue = [26209, 441, 13673]"] ;
4 -> 5 ;
6 [label="X[6] <= 0.5\ngini = 0.464\nsamples = 25368\nvalue = [25879, 441, 13673]"] ;
5 -> 6 ;
7 [label="X[115] <= 0.5\ngini = 0.467\nsamples = 25046\nvalue = [25373, 441, 13673]"] ;
6 -> 7 ;
8 [label="X[21] <= 0.5\ngini = 0.472\nsamples = 24528\nvalue = [24570, 441, 13673]"] ;
7 -> 8 ;
9 [label="X[34] <= 0.5\ngini = 0.05\nsamples = 15945\nvalue = [24570, 441, 206]"] ;
8 -> 9 ;
10 [label="X[16] <= 0.5\ngini = 0.049\nsamples = 15933\nvalue = [24570, 423, 206]"] ;
9 -> 10 ;
11 [label="X[4] <= 0.5\ngini = 0.052\nsamples = 14963\nvalue = [23047, 423, 206]"] ;
10 -> 11 ;
12 [label="X[1] <= 0.5\ngini = 0.048\nsamples = 14932\nvalue = [23047, 377, 206]"] ;
11 -> 12 ;
13 [label="X[66] <= 0.5\ngini = 0.039\nsamples = 14850\nvalue = [23047, 255, 206]"] ;
12 -> 13 ;
14 [label="X[117] <= 0.5\ngini = 0.037\nsamples = 14841\nvalue = [23047, 238, 206]"] ;
13 -> 14 ;
15 [label="X[112] <= 0.5\ngini = 0.037\nsamples = 14840\nvalue = [23047, 237, 206]"] ;
14 -> 15 ;
16 [label="X[40] <= 0.5\ngini = 0.057\nsamples = 9698\nvalue = [14863, 237, 206]"] ;
15 -> 16 ;
17 [label="X[5] <= 0.5\ngini = 0.035\nsamples = 9586\nvalue = [14863, 237, 35]"] ;
16 -> 17 ;
18 [label="X[18] <= 0.5\ngini = 0.038\nsamples = 8920\nvalue = [13799, 237, 35]"] ;
17 -> 18 ;
19 [label="X[44] <= 0.5\ngini = 0.037\nsamples = 8915\nvalue = [13799, 226, 35]"] ;
18 -> 19 ;
20 [label="X[22] <= 0.5\ngini = 0.033\nsamples = 8900\nvalue = [13799, 202, 35]"] ;
19 -> 20 ;
21 [label="X[99] <= 0.5\ngini = 0.032\nsamples = 8895\nvalue = [13799, 202, 28]"] ;
20 -> 21 ;
22 [label="X[54] <= 0.5\ngini = 0.045\nsamples = 6355\nvalue = [9812, 202, 28]"] ;
21 -> 22 ;
23 [label="X[30] <= 0.5\ngini = 0.049\nsamples = 5826\nvalue = [8988, 202, 28]"] ;
22 -> 23 ;
24 [label="X[32] <= 0.5\ngini = 0.049\nsamples = 5815\nvalue = [8968, 202, 28]"] ;
23 -> 24 ;
25 [label="X[47] <= 0.5\ngini = 0.049\nsamples = 5788\nvalue = [8927, 202, 28]"] ;
24 -> 25 ;
26 [label="X[53] <= 0.5\ngini = 0.041\nsamples = 5767\nvalue = [8927, 164, 28]"] ;
25 -> 26 ;
27 [label="X[61] <= 0.5\ngini = 0.033\nsamples = 5727\nvalue = [8916, 126, 28]"] ;
26 -> 27 ;
28 [label="X[43] <= 0.5\ngini = 0.036\nsamples = 5302\nvalue = [8249, 126, 28]"] ;
27 -> 28 ;
29 [label="X[55] <= 0.5\ngini = 0.038\nsamples = 5022\nvalue = [7801, 126, 28]"] ;
28 -> 29 ;
30 [label="X[87] <= 0.5\ngini = 0.244\nsamples = 694\nvalue = [962, 126, 28]"] ;
29 -> 30 ;
31 [label="X[59] <= 0.5\ngini = 0.069\nsamples = 604\nvalue = [944, 7, 28]"] ;
30 -> 31 ;
32 [label="X[8] <= 0.5\ngini = 0.071\nsamples = 594\nvalue = [927, 7, 28]"] ;
31 -> 32 ;
33 [label="X[116] <= 0.5\ngini = 0.065\nsamples = 591\nvalue = [927, 4, 28]"] ;
32 -> 33 ;
34 [label="X[67] <= 0.5\ngini = 0.144\nsamples = 257\nvalue = [381, 4, 28]"] ;
33 -> 34 ;
35 [label="X[101] <= 0.5\ngini = 0.021\nsamples = 238\nvalue = [379, 4, 0]"] ;
34 -> 35 ;
36 [label="X[63] <= 0.5\ngini = 0.021\nsamples = 237\nvalue = [378, 4, 0]"] ;
35 -> 36 ;
37 [label="gini = 0.0\nsamples = 171\nvalue = [266, 0, 0]"] ;
36 -> 37 ;
38 [label="X[10] <= 0.5\ngini = 0.067\nsamples = 66\nvalue = [112, 4, 0]"] ;
36 -> 38 ;
39 [label="X[3] <= 0.5\ngini = 0.079\nsamples = 55\nvalue = [93, 4, 0]"] ;
38 -> 39 ;
40 [label="gini = 0.0\nsamples = 2\nvalue = [0, 4, 0]"] ;
39 -> 40 ;
41 [label="gini = 0.0\nsamples = 53\nvalue = [93, 0, 0]"] ;
39 -> 41 ;
42 [label="gini = 0.0\nsamples = 11\nvalue = [19, 0, 0]"] ;
38 -> 42 ;
43 [label="gini = 0.0\nsamples = 1\nvalue = [1, 0, 0]"] ;
35 -> 43 ;
44 [label="X[27] <= 0.5\ngini = 0.124\nsamples = 19\nvalue = [2, 0, 28]"] ;
34 -> 44 ;
45 [label="gini = 0.0\nsamples = 18\nvalue = [0, 0, 28]"] ;
44 -> 45 ;
46 [label="gini = 0.0\nsamples = 1\nvalue = [2, 0, 0]"] ;
44 -> 46 ;
47 [label="gini = 0.0\nsamples = 334\nvalue = [546, 0, 0]"] ;
33 -> 47 ;
48 [label="gini = 0.0\nsamples = 3\nvalue = [0, 3, 0]"] ;
32 -> 48 ;
49 [label="gini = 0.0\nsamples = 10\nvalue = [17, 0, 0]"] ;
31 -> 49 ;
50 [label="X[36] <= 0.5\ngini = 0.228\nsamples = 90\nvalue = [18, 119, 0]"] ;
30 -> 50 ;
51 [label="gini = 0.0\nsamples = 79\nvalue = [0, 119, 0]"] ;
50 -> 51 ;
52 [label="gini = 0.0\nsamples = 11\nvalue = [18, 0, 0]"] ;
50 -> 52 ;
53 [label="gini = 0.0\nsamples = 4328\nvalue = [6839, 0, 0]"] ;
29 -> 53 ;
54 [label="gini = 0.0\nsamples = 280\nvalue = [448, 0, 0]"] ;
28 -> 54 ;
55 [label="gini = 0.0\nsamples = 425\nvalue = [667, 0, 0]"] ;
27 -> 55 ;
56 [label="X[15] <= 0.5\ngini = 0.348\nsamples = 40\nvalue = [11, 38, 0]"] ;
26 -> 56 ;
57 [label="X[50] <= 0.5\ngini = 0.353\nsamples = 39\nvalue = [11, 37, 0]"] ;
56 -> 57 ;
58 [label="X[45] <= 0.5\ngini = 0.153\nsamples = 9\nvalue = [11, 1, 0]"] ;
57 -> 58 ;
59 [label="X[49] <= 0.5\ngini = 0.219\nsamples = 6\nvalue = [7, 1, 0]"] ;
58 -> 59 ;
60 [label="gini = 0.0\nsamples = 5\nvalue = [7, 0, 0]"] ;
59 -> 60 ;
61 [label="gini = 0.0\nsamples = 1\nvalue = [0, 1, 0]"] ;
59 -> 61 ;
62 [label="gini = 0.0\nsamples = 3\nvalue = [4, 0, 0]"] ;
58 -> 62 ;
63 [label="gini = 0.0\nsamples = 30\nvalue = [0, 36, 0]"] ;
57 -> 63 ;
64 [label="gini = 0.0\nsamples = 1\nvalue = [0, 1, 0]"] ;
56 -> 64 ;
65 [label="gini = 0.0\nsamples = 21\nvalue = [0, 38, 0]"] ;
25 -> 65 ;
66 [label="gini = 0.0\nsamples = 27\nvalue = [41, 0, 0]"] ;
24 -> 66 ;
67 [label="gini = 0.0\nsamples = 11\nvalue = [20, 0, 0]"] ;
23 -> 67 ;
68 [label="gini = 0.0\nsamples = 529\nvalue = [824, 0, 0]"] ;
22 -> 68 ;
69 [label="gini = 0.0\nsamples = 2540\nvalue = [3987, 0, 0]"] ;
21 -> 69 ;
70 [label="gini = 0.0\nsamples = 5\nvalue = [0, 0, 7]"] ;
20 -> 70 ;
71 [label="gini = 0.0\nsamples = 15\nvalue = [0, 24, 0]"] ;
19 -> 71 ;
72 [label="gini = 0.0\nsamples = 5\nvalue = [0, 11, 0]"] ;
18 -> 72 ;
73 [label="gini = 0.0\nsamples = 666\nvalue = [1064, 0, 0]"] ;
17 -> 73 ;
74 [label="gini = 0.0\nsamples = 112\nvalue = [0, 0, 171]"] ;
16 -> 74 ;
75 [label="gini = 0.0\nsamples = 5142\nvalue = [8184, 0, 0]"] ;
15 -> 75 ;
76 [label="gini = 0.0\nsamples = 1\nvalue = [0, 1, 0]"] ;
14 -> 76 ;
77 [label="gini = 0.0\nsamples = 9\nvalue = [0, 17, 0]"] ;
13 -> 77 ;
78 [label="gini = 0.0\nsamples = 82\nvalue = [0, 122, 0]"] ;
12 -> 78 ;
79 [label="gini = 0.0\nsamples = 31\nvalue = [0, 46, 0]"] ;
11 -> 79 ;
80 [label="gini = 0.0\nsamples = 970\nvalue = [1523, 0, 0]"] ;
10 -> 80 ;
81 [label="gini = 0.0\nsamples = 12\nvalue = [0, 18, 0]"] ;
9 -> 81 ;
82 [label="gini = 0.0\nsamples = 8583\nvalue = [0, 0, 13467]"] ;
8 -> 82 ;
83 [label="gini = 0.0\nsamples = 518\nvalue = [803, 0, 0]"] ;
7 -> 83 ;
84 [label="gini = 0.0\nsamples = 322\nvalue = [506, 0, 0]"] ;
6 -> 84 ;
85 [label="gini = 0.0\nsamples = 214\nvalue = [330, 0, 0]"] ;
5 -> 85 ;
86 [label="gini = 0.0\nsamples = 536\nvalue = [848, 0, 0]"] ;
4 -> 86 ;
87 [label="gini = 0.0\nsamples = 531\nvalue = [837, 0, 0]"] ;
3 -> 87 ;
88 [label="gini = 0.0\nsamples = 174\nvalue = [280, 0, 0]"] ;
2 -> 88 ;
89 [label="gini = 0.0\nsamples = 1112\nvalue = [1746, 0, 0]"] ;
1 -> 89 ;
90 [label="gini = 0.0\nsamples = 492\nvalue = [0, 802, 0]"] ;
0 -> 90 [labeldistance=2.5, labelangle=-45, headlabel="False"] ;
}