digraph Tree {
node [shape=box] ;
0 [label="ua_agent_version_major_AdsBot-Google-Mobile <= 0.5\ngini = 0.461\nsamples = 28427\nvalue = [29920, 1243, 13673]\nclass = HT"] ;
1 [label="ua_agent_name_SamsungBrowser <= 0.5\ngini = 0.442\nsamples = 27935\nvalue = [29920, 441, 13673]\nclass = HT"] ;
0 -> 1 [labeldistance=2.5, labelangle=45, headlabel="True"] ;
2 [label="ua_agent_version_major_66 <= 0.5\ngini = 0.451\nsamples = 26823\nvalue = [28174, 441, 13673]\nclass = HT"] ;
1 -> 2 ;
3 [label="ua_agent_name_Hacker <= 0.5\ngini = 0.453\nsamples = 26649\nvalue = [27894, 441, 13673]\nclass = HT"] ;
2 -> 3 ;
4 [label="ua_agent_version_major_AdsBot-Google <= 0.5\ngini = 0.458\nsamples = 26118\nvalue = [27057, 441, 13673]\nclass = HT"] ;
3 -> 4 ;
5 [label="ua_agent_version_major_604 <= 0.5\ngini = 0.462\nsamples = 25582\nvalue = [26209, 441, 13673]\nclass = HT"] ;
4 -> 5 ;
6 [label="ua_agent_name_Chrome Webview <= 0.5\ngini = 0.464\nsamples = 25368\nvalue = [25879, 441, 13673]\nclass = HT"] ;
5 -> 6 ;
7 [label="ua_agent_version_major_8 <= 0.5\ngini = 0.467\nsamples = 25046\nvalue = [25373, 441, 13673]\nclass = HT"] ;
6 -> 7 ;
8 [label="ua_agent_name_Googlebot <= 0.5\ngini = 0.472\nsamples = 24528\nvalue = [24570, 441, 13673]\nclass = HT"] ;
7 -> 8 ;
9 [label="ua_agent_name_Pinterestbot <= 0.5\ngini = 0.05\nsamples = 15945\nvalue = [24570, 441, 206]\nclass = HT"] ;
8 -> 9 ;
10 [label="ua_agent_name_Firefox <= 0.5\ngini = 0.049\nsamples = 15933\nvalue = [24570, 423, 206]\nclass = HT"] ;
9 -> 10 ;
11 [label="ua_agent_name_Caliperbot <= 0.5\ngini = 0.052\nsamples = 14963\nvalue = [23047, 423, 206]\nclass = HT"] ;
10 -> 11 ;
12 [label="ua_agent_name_Applebot <= 0.5\ngini = 0.048\nsamples = 14932\nvalue = [23047, 377, 206]\nclass = HT"] ;
11 -> 12 ;
13 [label="ua_agent_version_major_2~bl <= 0.5\ngini = 0.039\nsamples = 14850\nvalue = [23047, 255, 206]\nclass = HT"] ;
12 -> 13 ;
14 [label="ua_agent_version_major_?? <= 0.5\ngini = 0.037\nsamples = 14841\nvalue = [23047, 238, 206]\nclass = HT"] ;
13 -> 14 ;
15 [label="ua_agent_version_major_67 <= 0.5\ngini = 0.037\nsamples = 14840\nvalue = [23047, 237, 206]\nclass = HT"] ;
14 -> 15 ;
16 [label="ua_agent_name_Sogou web spider <= 0.5\ngini = 0.057\nsamples = 9698\nvalue = [14863, 237, 206]\nclass = HT"] ;
15 -> 16 ;
17 [label="ua_agent_name_Chrome <= 0.5\ngini = 0.035\nsamples = 9586\nvalue = [14863, 237, 35]\nclass = HT"] ;
16 -> 17 ;
18 [label="ua_agent_name_Gluten Free Crawler <= 0.5\ngini = 0.038\nsamples = 8920\nvalue = [13799, 237, 35]\nclass = HT"] ;
17 -> 18 ;
19 [label="ua_agent_name_UptimeRobot <= 0.5\ngini = 0.037\nsamples = 8915\nvalue = [13799, 226, 35]\nclass = HT"] ;
18 -> 19 ;
20 [label="ua_agent_name_Googlebot-Image <= 0.5\ngini = 0.033\nsamples = 8900\nvalue = [13799, 202, 35]\nclass = HT"] ;
19 -> 20 ;
21 [label="ua_agent_version_major_6 <= 0.5\ngini = 0.032\nsamples = 8895\nvalue = [13799, 202, 28]\nclass = HT"] ;
20 -> 21 ;
22 [label="ua_agent_version_major_10 <= 0.5\ngini = 0.045\nsamples = 6355\nvalue = [9812, 202, 28]\nclass = HT"] ;
21 -> 22 ;
23 [label="ua_agent_name_MiuiBrowser <= 0.5\ngini = 0.049\nsamples = 5826\nvalue = [8988, 202, 28]\nclass = HT"] ;
22 -> 23 ;
24 [label="ua_agent_name_Netscape <= 0.5\ngini = 0.049\nsamples = 5815\nvalue = [8968, 202, 28]\nclass = HT"] ;
23 -> 24 ;
25 [label="ua_agent_name_WhatsApp <= 0.5\ngini = 0.049\nsamples = 5788\nvalue = [8927, 202, 28]\nclass = HT"] ;
24 -> 25 ;
26 [label="ua_agent_version_major_1 <= 0.5\ngini = 0.041\nsamples = 5767\nvalue = [8927, 164, 28]\nclass = HT"] ;
25 -> 26 ;
27 [label="ua_agent_version_major_17 <= 0.5\ngini = 0.033\nsamples = 5727\nvalue = [8916, 126, 28]\nclass = HT"] ;
26 -> 27 ;
28 [label="ua_agent_name_UIWebView <= 0.5\ngini = 0.036\nsamples = 5302\nvalue = [8249, 126, 28]\nclass = HT"] ;
27 -> 28 ;
29 [label="ua_agent_version_major_11 <= 0.5\ngini = 0.038\nsamples = 5022\nvalue = [7801, 126, 28]\nclass = HT"] ;
28 -> 29 ;
30 [label="ua_agent_version_major_5 <= 0.5\ngini = 0.244\nsamples = 694\nvalue = [962, 126, 28]\nclass = HT"] ;
29 -> 30 ;
31 [label="ua_agent_version_major_15 <= 0.5\ngini = 0.069\nsamples = 604\nvalue = [944, 7, 28]\nclass = HT"] ;
30 -> 31 ;
32 [label="ua_agent_name_Cliqzbot <= 0.5\ngini = 0.071\nsamples = 594\nvalue = [927, 7, 28]\nclass = HT"] ;
31 -> 32 ;
33 [label="ua_agent_version_major_9 <= 0.5\ngini = 0.065\nsamples = 591\nvalue = [927, 4, 28]\nclass = HT"] ;
32 -> 33 ;
34 [label="ua_agent_version_major_3 <= 0.5\ngini = 0.144\nsamples = 257\nvalue = [381, 4, 28]\nclass = HT"] ;
33 -> 34 ;
35 [label="ua_agent_version_major_601 <= 0.5\ngini = 0.021\nsamples = 238\nvalue = [379, 4, 0]\nclass = HT"] ;
34 -> 35 ;
36 [label="ua_agent_version_major_2 <= 0.5\ngini = 0.021\nsamples = 237\nvalue = [378, 4, 0]\nclass = HT"] ;
35 -> 36 ;
37 [label="gini = 0.0\nsamples = 171\nvalue = [266, 0, 0]\nclass = HT"] ;
36 -> 37 ;
38 [label="ua_agent_name_Dalvik <= 0.5\ngini = 0.067\nsamples = 66\nvalue = [112, 4, 0]\nclass = HT"] ;
36 -> 38 ;
39 [label="ua_agent_name_Bingbot <= 0.5\ngini = 0.079\nsamples = 55\nvalue = [93, 4, 0]\nclass = HT"] ;
38 -> 39 ;
40 [label="gini = 0.0\nsamples = 2\nvalue = [0, 4, 0]\nclass = NHT-other"] ;
39 -> 40 ;
41 [label="gini = 0.0\nsamples = 53\nvalue = [93, 0, 0]\nclass = HT"] ;
39 -> 41 ;
42 [label="gini = 0.0\nsamples = 11\nvalue = [19, 0, 0]\nclass = HT"] ;
38 -> 42 ;
43 [label="gini = 0.0\nsamples = 1\nvalue = [1, 0, 0]\nclass = HT"] ;
35 -> 43 ;
44 [label="ua_agent_name_Jakarta Commons-HttpClient <= 0.5\ngini = 0.124\nsamples = 19\nvalue = [2, 0, 28]\nclass = NHT-search"] ;
34 -> 44 ;
45 [label="gini = 0.0\nsamples = 18\nvalue = [0, 0, 28]\nclass = NHT-search"] ;
44 -> 45 ;
46 [label="gini = 0.0\nsamples = 1\nvalue = [2, 0, 0]\nclass = HT"] ;
44 -> 46 ;
47 [label="gini = 0.0\nsamples = 334\nvalue = [546, 0, 0]\nclass = HT"] ;
33 -> 47 ;
48 [label="gini = 0.0\nsamples = 3\nvalue = [0, 3, 0]\nclass = NHT-other"] ;
32 -> 48 ;
49 [label="gini = 0.0\nsamples = 10\nvalue = [17, 0, 0]\nclass = HT"] ;
31 -> 49 ;
50 [label="ua_agent_name_Safari <= 0.5\ngini = 0.228\nsamples = 90\nvalue = [18, 119, 0]\nclass = NHT-other"] ;
30 -> 50 ;
51 [label="gini = 0.0\nsamples = 79\nvalue = [0, 119, 0]\nclass = NHT-other"] ;
50 -> 51 ;
52 [label="gini = 0.0\nsamples = 11\nvalue = [18, 0, 0]\nclass = HT"] ;
50 -> 52 ;
53 [label="gini = 0.0\nsamples = 4328\nvalue = [6839, 0, 0]\nclass = HT"] ;
29 -> 53 ;
54 [label="gini = 0.0\nsamples = 280\nvalue = [448, 0, 0]\nclass = HT"] ;
28 -> 54 ;
55 [label="gini = 0.0\nsamples = 425\nvalue = [667, 0, 0]\nclass = HT"] ;
27 -> 55 ;
56 [label="ua_agent_name_Facebot Twitterbot <= 0.5\ngini = 0.348\nsamples = 40\nvalue = [11, 38, 0]\nclass = NHT-other"] ;
26 -> 56 ;
57 [label="ua_agent_name_facebookexternalhit <= 0.5\ngini = 0.353\nsamples = 39\nvalue = [11, 37, 0]\nclass = NHT-other"] ;
56 -> 57 ;
58 [label="ua_agent_name_Vivaldi <= 0.5\ngini = 0.153\nsamples = 9\nvalue = [11, 1, 0]\nclass = HT"] ;
57 -> 58 ;
59 [label="ua_agent_name_coccocbot-web <= 0.5\ngini = 0.219\nsamples = 6\nvalue = [7, 1, 0]\nclass = HT"] ;
58 -> 59 ;
60 [label="gini = 0.0\nsamples = 5\nvalue = [7, 0, 0]\nclass = HT"] ;
59 -> 60 ;
61 [label="gini = 0.0\nsamples = 1\nvalue = [0, 1, 0]\nclass = NHT-other"] ;
59 -> 61 ;
62 [label="gini = 0.0\nsamples = 3\nvalue = [4, 0, 0]\nclass = HT"] ;
58 -> 62 ;
63 [label="gini = 0.0\nsamples = 30\nvalue = [0, 36, 0]\nclass = NHT-other"] ;
57 -> 63 ;
64 [label="gini = 0.0\nsamples = 1\nvalue = [0, 1, 0]\nclass = NHT-other"] ;
56 -> 64 ;
65 [label="gini = 0.0\nsamples = 21\nvalue = [0, 38, 0]\nclass = NHT-other"] ;
25 -> 65 ;
66 [label="gini = 0.0\nsamples = 27\nvalue = [41, 0, 0]\nclass = HT"] ;
24 -> 66 ;
67 [label="gini = 0.0\nsamples = 11\nvalue = [20, 0, 0]\nclass = HT"] ;
23 -> 67 ;
68 [label="gini = 0.0\nsamples = 529\nvalue = [824, 0, 0]\nclass = HT"] ;
22 -> 68 ;
69 [label="gini = 0.0\nsamples = 2540\nvalue = [3987, 0, 0]\nclass = HT"] ;
21 -> 69 ;
70 [label="gini = 0.0\nsamples = 5\nvalue = [0, 0, 7]\nclass = NHT-search"] ;
20 -> 70 ;
71 [label="gini = 0.0\nsamples = 15\nvalue = [0, 24, 0]\nclass = NHT-other"] ;
19 -> 71 ;
72 [label="gini = 0.0\nsamples = 5\nvalue = [0, 11, 0]\nclass = NHT-other"] ;
18 -> 72 ;
73 [label="gini = 0.0\nsamples = 666\nvalue = [1064, 0, 0]\nclass = HT"] ;
17 -> 73 ;
74 [label="gini = 0.0\nsamples = 112\nvalue = [0, 0, 171]\nclass = NHT-search"] ;
16 -> 74 ;
75 [label="gini = 0.0\nsamples = 5142\nvalue = [8184, 0, 0]\nclass = HT"] ;
15 -> 75 ;
76 [label="gini = 0.0\nsamples = 1\nvalue = [0, 1, 0]\nclass = NHT-other"] ;
14 -> 76 ;
77 [label="gini = 0.0\nsamples = 9\nvalue = [0, 17, 0]\nclass = NHT-other"] ;
13 -> 77 ;
78 [label="gini = 0.0\nsamples = 82\nvalue = [0, 122, 0]\nclass = NHT-other"] ;
12 -> 78 ;
79 [label="gini = 0.0\nsamples = 31\nvalue = [0, 46, 0]\nclass = NHT-other"] ;
11 -> 79 ;
80 [label="gini = 0.0\nsamples = 970\nvalue = [1523, 0, 0]\nclass = HT"] ;
10 -> 80 ;
81 [label="gini = 0.0\nsamples = 12\nvalue = [0, 18, 0]\nclass = NHT-other"] ;
9 -> 81 ;
82 [label="gini = 0.0\nsamples = 8583\nvalue = [0, 0, 13467]\nclass = NHT-search"] ;
8 -> 82 ;
83 [label="gini = 0.0\nsamples = 518\nvalue = [803, 0, 0]\nclass = HT"] ;
7 -> 83 ;
84 [label="gini = 0.0\nsamples = 322\nvalue = [506, 0, 0]\nclass = HT"] ;
6 -> 84 ;
85 [label="gini = 0.0\nsamples = 214\nvalue = [330, 0, 0]\nclass = HT"] ;
5 -> 85 ;
86 [label="gini = 0.0\nsamples = 536\nvalue = [848, 0, 0]\nclass = HT"] ;
4 -> 86 ;
87 [label="gini = 0.0\nsamples = 531\nvalue = [837, 0, 0]\nclass = HT"] ;
3 -> 87 ;
88 [label="gini = 0.0\nsamples = 174\nvalue = [280, 0, 0]\nclass = HT"] ;
2 -> 88 ;
89 [label="gini = 0.0\nsamples = 1112\nvalue = [1746, 0, 0]\nclass = HT"] ;
1 -> 89 ;
90 [label="gini = 0.0\nsamples = 492\nvalue = [0, 802, 0]\nclass = NHT-other"] ;
0 -> 90 [labeldistance=2.5, labelangle=-45, headlabel="False"] ;
}