digraph Tree {
node [shape=box] ;
0 [label="X[16] <= 0.5\ngini = 0.463\nsamples = 28285\nvalue = [29771, 1194, 13871]"] ;
1 [label="X[26] <= 0.5\ngini = 0.471\nsamples = 27324\nvalue = [28233, 1194, 13871]"] ;
0 -> 1 [labeldistance=2.5, labelangle=45, headlabel="True"] ;
2 [label="X[119] <= 0.5\ngini = 0.503\nsamples = 23806\nvalue = [22703, 1194, 13871]"] ;
1 -> 2 ;
3 [label="X[105] <= 0.5\ngini = 0.483\nsamples = 23331\nvalue = [22703, 447, 13871]"] ;
2 -> 3 ;
4 [label="X[116] <= 0.5\ngini = 0.486\nsamples = 23086\nvalue = [22291, 447, 13871]"] ;
3 -> 4 ;
5 [label="X[118] <= 0.5\ngini = 0.488\nsamples = 22779\nvalue = [21814, 447, 13871]"] ;
4 -> 5 ;
6 [label="X[40] <= 0.5\ngini = 0.492\nsamples = 22246\nvalue = [20963, 447, 13871]"] ;
5 -> 6 ;
7 [label="X[3] <= 0.5\ngini = 0.491\nsamples = 22138\nvalue = [20963, 447, 13709]"] ;
6 -> 7 ;
8 [label="X[23] <= 0.5\ngini = 0.492\nsamples = 22084\nvalue = [20860, 447, 13709]"] ;
7 -> 8 ;
9 [label="X[36] <= 0.5\ngini = 0.496\nsamples = 21568\nvalue = [20021, 447, 13709]"] ;
8 -> 9 ;
10 [label="X[37] <= 0.5\ngini = 0.516\nsamples = 17202\nvalue = [13101, 447, 13709]"] ;
9 -> 10 ;
11 [label="X[6] <= 0.5\ngini = 0.513\nsamples = 16106\nvalue = [11362, 447, 13709]"] ;
10 -> 11 ;
12 [label="X[87] <= 0.5\ngini = 0.511\nsamples = 15768\nvalue = [10815, 447, 13709]"] ;
11 -> 12 ;
13 [label="X[21] <= 0.5\ngini = 0.506\nsamples = 15655\nvalue = [10778, 316, 13709]"] ;
12 -> 13 ;
14 [label="X[53] <= 0.5\ngini = 0.062\nsamples = 7029\nvalue = [10778, 316, 37]"] ;
13 -> 14 ;
15 [label="X[67] <= 0.5\ngini = 0.04\nsamples = 6930\nvalue = [10763, 195, 30]"] ;
14 -> 15 ;
16 [label="X[52] <= 0.5\ngini = 0.035\nsamples = 6914\nvalue = [10762, 195, 0]"] ;
15 -> 16 ;
17 [label="X[38] <= 0.5\ngini = 0.034\nsamples = 6912\nvalue = [10762, 192, 0]"] ;
16 -> 17 ;
18 [label="X[5] <= 0.5\ngini = 0.032\nsamples = 6905\nvalue = [10762, 180, 0]"] ;
17 -> 18 ;
19 [label="X[86] <= 0.5\ngini = 0.203\nsamples = 1007\nvalue = [1393, 180, 0]"] ;
18 -> 19 ;
20 [label="X[91] <= 0.5\ngini = 0.206\nsamples = 994\nvalue = [1368, 180, 0]"] ;
19 -> 20 ;
21 [label="X[111] <= 0.5\ngini = 0.208\nsamples = 978\nvalue = [1346, 180, 0]"] ;
20 -> 21 ;
22 [label="X[63] <= 0.5\ngini = 0.21\nsamples = 969\nvalue = [1330, 180, 0]"] ;
21 -> 22 ;
23 [label="X[41] <= 0.5\ngini = 0.158\nsamples = 928\nvalue = [1321, 125, 0]"] ;
22 -> 23 ;
24 [label="X[61] <= 0.5\ngini = 0.16\nsamples = 918\nvalue = [1305, 125, 0]"] ;
23 -> 24 ;
25 [label="X[104] <= 0.5\ngini = 0.284\nsamples = 474\nvalue = [606, 125, 0]"] ;
24 -> 25 ;
26 [label="X[7] <= 0.5\ngini = 0.418\nsamples = 269\nvalue = [295, 125, 0]"] ;
25 -> 26 ;
27 [label="X[25] <= 0.5\ngini = 0.421\nsamples = 265\nvalue = [290, 125, 0]"] ;
26 -> 27 ;
28 [label="X[101] <= 0.5\ngini = 0.423\nsamples = 261\nvalue = [286, 125, 0]"] ;
27 -> 28 ;
29 [label="X[83] <= 0.5\ngini = 0.444\nsamples = 242\nvalue = [250, 125, 0]"] ;
28 -> 29 ;
30 [label="X[56] <= 0.5\ngini = 0.446\nsamples = 239\nvalue = [247, 125, 0]"] ;
29 -> 30 ;
31 [label="X[103] <= 0.5\ngini = 0.452\nsamples = 234\nvalue = [238, 125, 0]"] ;
30 -> 31 ;
32 [label="X[102] <= 0.5\ngini = 0.464\nsamples = 223\nvalue = [217, 125, 0]"] ;
31 -> 32 ;
33 [label="X[14] <= 0.5\ngini = 0.481\nsamples = 204\nvalue = [185, 125, 0]"] ;
32 -> 33 ;
34 [label="X[55] <= 0.5\ngini = 0.412\nsamples = 114\nvalue = [51, 125, 0]"] ;
33 -> 34 ;
35 [label="X[76] <= 0.5\ngini = 0.405\nsamples = 112\nvalue = [49, 125, 0]"] ;
34 -> 35 ;
36 [label="X[115] <= 0.5\ngini = 0.385\nsamples = 109\nvalue = [44, 125, 0]"] ;
35 -> 36 ;
37 [label="X[1] <= 0.5\ngini = 0.381\nsamples = 108\nvalue = [43, 125, 0]"] ;
36 -> 37 ;
38 [label="X[47] <= 0.5\ngini = 0.187\nsamples = 28\nvalue = [43, 5, 0]"] ;
37 -> 38 ;
39 [label="gini = 0.0\nsamples = 26\nvalue = [43, 0, 0]"] ;
38 -> 39 ;
40 [label="gini = 0.0\nsamples = 2\nvalue = [0, 5, 0]"] ;
38 -> 40 ;
41 [label="gini = 0.0\nsamples = 80\nvalue = [0, 120, 0]"] ;
37 -> 41 ;
42 [label="gini = 0.0\nsamples = 1\nvalue = [1, 0, 0]"] ;
36 -> 42 ;
43 [label="gini = 0.0\nsamples = 3\nvalue = [5, 0, 0]"] ;
35 -> 43 ;
44 [label="gini = 0.0\nsamples = 2\nvalue = [2, 0, 0]"] ;
34 -> 44 ;
45 [label="gini = 0.0\nsamples = 90\nvalue = [134, 0, 0]"] ;
33 -> 45 ;
46 [label="gini = 0.0\nsamples = 19\nvalue = [32, 0, 0]"] ;
32 -> 46 ;
47 [label="gini = 0.0\nsamples = 11\nvalue = [21, 0, 0]"] ;
31 -> 47 ;
48 [label="gini = 0.0\nsamples = 5\nvalue = [9, 0, 0]"] ;
30 -> 48 ;
49 [label="gini = 0.0\nsamples = 3\nvalue = [3, 0, 0]"] ;
29 -> 49 ;
50 [label="gini = 0.0\nsamples = 19\nvalue = [36, 0, 0]"] ;
28 -> 50 ;
51 [label="gini = 0.0\nsamples = 4\nvalue = [4, 0, 0]"] ;
27 -> 51 ;
52 [label="gini = 0.0\nsamples = 4\nvalue = [5, 0, 0]"] ;
26 -> 52 ;
53 [label="gini = 0.0\nsamples = 205\nvalue = [311, 0, 0]"] ;
25 -> 53 ;
54 [label="gini = 0.0\nsamples = 444\nvalue = [699, 0, 0]"] ;
24 -> 54 ;
55 [label="gini = 0.0\nsamples = 10\nvalue = [16, 0, 0]"] ;
23 -> 55 ;
56 [label="X[11] <= 0.5\ngini = 0.242\nsamples = 41\nvalue = [9, 55, 0]"] ;
22 -> 56 ;
57 [label="X[47] <= 0.5\ngini = 0.255\nsamples = 39\nvalue = [9, 51, 0]"] ;
56 -> 57 ;
58 [label="X[8] <= 0.5\ngini = 0.428\nsamples = 20\nvalue = [9, 20, 0]"] ;
57 -> 58 ;
59 [label="X[44] <= 0.5\ngini = 0.444\nsamples = 18\nvalue = [9, 18, 0]"] ;
58 -> 59 ;
60 [label="gini = 0.0\nsamples = 6\nvalue = [9, 0, 0]"] ;
59 -> 60 ;
61 [label="gini = 0.0\nsamples = 12\nvalue = [0, 18, 0]"] ;
59 -> 61 ;
62 [label="gini = 0.0\nsamples = 2\nvalue = [0, 2, 0]"] ;
58 -> 62 ;
63 [label="gini = 0.0\nsamples = 19\nvalue = [0, 31, 0]"] ;
57 -> 63 ;
64 [label="gini = 0.0\nsamples = 2\nvalue = [0, 4, 0]"] ;
56 -> 64 ;
65 [label="gini = 0.0\nsamples = 9\nvalue = [16, 0, 0]"] ;
21 -> 65 ;
66 [label="gini = 0.0\nsamples = 16\nvalue = [22, 0, 0]"] ;
20 -> 66 ;
67 [label="gini = 0.0\nsamples = 13\nvalue = [25, 0, 0]"] ;
19 -> 67 ;
68 [label="gini = 0.0\nsamples = 5898\nvalue = [9369, 0, 0]"] ;
18 -> 68 ;
69 [label="gini = 0.0\nsamples = 7\nvalue = [0, 12, 0]"] ;
17 -> 69 ;
70 [label="gini = 0.0\nsamples = 2\nvalue = [0, 3, 0]"] ;
16 -> 70 ;
71 [label="X[48] <= 0.5\ngini = 0.062\nsamples = 16\nvalue = [1, 0, 30]"] ;
15 -> 71 ;
72 [label="gini = 0.0\nsamples = 1\nvalue = [1, 0, 0]"] ;
71 -> 72 ;
73 [label="gini = 0.0\nsamples = 15\nvalue = [0, 0, 30]"] ;
71 -> 73 ;
74 [label="X[10] <= 0.5\ngini = 0.271\nsamples = 99\nvalue = [15, 121, 7]"] ;
14 -> 74 ;
75 [label="X[18] <= 0.5\ngini = 0.168\nsamples = 93\nvalue = [5, 121, 7]"] ;
74 -> 75 ;
76 [label="X[38] <= 0.5\ngini = 0.179\nsamples = 88\nvalue = [5, 112, 7]"] ;
75 -> 76 ;
77 [label="X[50] <= 0.5\ngini = 0.181\nsamples = 87\nvalue = [5, 111, 7]"] ;
76 -> 77 ;
78 [label="X[4] <= 0.5\ngini = 0.26\nsamples = 55\nvalue = [5, 70, 7]"] ;
77 -> 78 ;
79 [label="X[15] <= 0.5\ngini = 0.508\nsamples = 25\nvalue = [5, 23, 7]"] ;
78 -> 79 ;
80 [label="X[49] <= 0.5\ngini = 0.517\nsamples = 24\nvalue = [5, 22, 7]"] ;
79 -> 80 ;
81 [label="X[28] <= 0.5\ngini = 0.537\nsamples = 22\nvalue = [5, 20, 7]"] ;
80 -> 81 ;
82 [label="X[22] <= 0.5\ngini = 0.491\nsamples = 21\nvalue = [3, 20, 7]"] ;
81 -> 82 ;
83 [label="X[34] <= 0.5\ngini = 0.227\nsamples = 14\nvalue = [3, 20, 0]"] ;
82 -> 83 ;
84 [label="gini = 0.0\nsamples = 2\nvalue = [3, 0, 0]"] ;
83 -> 84 ;
85 [label="gini = 0.0\nsamples = 12\nvalue = [0, 20, 0]"] ;
83 -> 85 ;
86 [label="gini = 0.0\nsamples = 7\nvalue = [0, 0, 7]"] ;
82 -> 86 ;
87 [label="gini = 0.0\nsamples = 1\nvalue = [2, 0, 0]"] ;
81 -> 87 ;
88 [label="gini = 0.0\nsamples = 2\nvalue = [0, 2, 0]"] ;
80 -> 88 ;
89 [label="gini = 0.0\nsamples = 1\nvalue = [0, 1, 0]"] ;
79 -> 89 ;
90 [label="gini = 0.0\nsamples = 30\nvalue = [0, 47, 0]"] ;
78 -> 90 ;
91 [label="gini = 0.0\nsamples = 32\nvalue = [0, 41, 0]"] ;
77 -> 91 ;
92 [label="gini = 0.0\nsamples = 1\nvalue = [0, 1, 0]"] ;
76 -> 92 ;
93 [label="gini = 0.0\nsamples = 5\nvalue = [0, 9, 0]"] ;
75 -> 93 ;
94 [label="gini = 0.0\nsamples = 6\nvalue = [10, 0, 0]"] ;
74 -> 94 ;
95 [label="gini = 0.0\nsamples = 8626\nvalue = [0, 0, 13672]"] ;
13 -> 95 ;
96 [label="X[32] <= 0.5\ngini = 0.343\nsamples = 113\nvalue = [37, 131, 0]"] ;
12 -> 96 ;
97 [label="X[35] <= 0.5\ngini = 0.03\nsamples = 90\nvalue = [2, 131, 0]"] ;
96 -> 97 ;
98 [label="gini = 0.0\nsamples = 89\nvalue = [0, 131, 0]"] ;
97 -> 98 ;
99 [label="gini = 0.0\nsamples = 1\nvalue = [2, 0, 0]"] ;
97 -> 99 ;
100 [label="gini = 0.0\nsamples = 23\nvalue = [35, 0, 0]"] ;
96 -> 100 ;
101 [label="gini = 0.0\nsamples = 338\nvalue = [547, 0, 0]"] ;
11 -> 101 ;
102 [label="gini = 0.0\nsamples = 1096\nvalue = [1739, 0, 0]"] ;
10 -> 102 ;
103 [label="gini = 0.0\nsamples = 4366\nvalue = [6920, 0, 0]"] ;
9 -> 103 ;
104 [label="gini = 0.0\nsamples = 516\nvalue = [839, 0, 0]"] ;
8 -> 104 ;
105 [label="gini = 0.0\nsamples = 54\nvalue = [103, 0, 0]"] ;
7 -> 105 ;
106 [label="gini = 0.0\nsamples = 108\nvalue = [0, 0, 162]"] ;
6 -> 106 ;
107 [label="gini = 0.0\nsamples = 533\nvalue = [851, 0, 0]"] ;
5 -> 107 ;
108 [label="gini = 0.0\nsamples = 307\nvalue = [477, 0, 0]"] ;
4 -> 108 ;
109 [label="gini = 0.0\nsamples = 245\nvalue = [412, 0, 0]"] ;
3 -> 109 ;
110 [label="gini = 0.0\nsamples = 475\nvalue = [0, 747, 0]"] ;
2 -> 110 ;
111 [label="gini = 0.0\nsamples = 3518\nvalue = [5530, 0, 0]"] ;
1 -> 111 ;
112 [label="gini = 0.0\nsamples = 961\nvalue = [1538, 0, 0]"] ;
0 -> 112 [labeldistance=2.5, labelangle=-45, headlabel="False"] ;
}