digraph Tree {
node [shape=box] ;
0 [label="X[76] <= 0.5\ngini = 0.463\nsamples = 28432\nvalue = [29769, 1244, 13823]"] ;
1 [label="X[14] <= 0.5\ngini = 0.462\nsamples = 28304\nvalue = [29740, 1244, 13648]"] ;
0 -> 1 [labeldistance=2.5, labelangle=45, headlabel="True"] ;
2 [label="X[63] <= 0.5\ngini = 0.466\nsamples = 27780\nvalue = [28940, 1244, 13648]"] ;
1 -> 2 ;
3 [label="X[53] <= 0.5\ngini = 0.078\nsamples = 19011\nvalue = [28832, 1181, 38]"] ;
2 -> 3 ;
4 [label="X[37] <= 0.5\ngini = 0.07\nsamples = 18906\nvalue = [28807, 1047, 31]"] ;
3 -> 4 ;
5 [label="X[54] <= 0.5\ngini = 0.074\nsamples = 17796\nvalue = [27027, 1047, 31]"] ;
4 -> 5 ;
6 [label="X[5] <= 0.5\ngini = 0.076\nsamples = 17260\nvalue = [26187, 1047, 31]"] ;
5 -> 6 ;
7 [label="X[36] <= 0.5\ngini = 0.113\nsamples = 11341\nvalue = [16831, 1047, 31]"] ;
6 -> 7 ;
8 [label="X[105] <= 0.5\ngini = 0.172\nsamples = 7207\nvalue = [10319, 1047, 31]"] ;
7 -> 8 ;
9 [label="X[67] <= 0.5\ngini = 0.178\nsamples = 6924\nvalue = [9889, 1047, 31]"] ;
8 -> 9 ;
10 [label="X[20] <= 0.5\ngini = 0.173\nsamples = 6905\nvalue = [9886, 1047, 0]"] ;
9 -> 10 ;
11 [label="X[99] <= 0.5\ngini = 0.173\nsamples = 6904\nvalue = [9886, 1046, 0]"] ;
10 -> 11 ;
12 [label="X[52] <= 0.5\ngini = 0.254\nsamples = 4397\nvalue = [5975, 1046, 0]"] ;
11 -> 12 ;
13 [label="X[16] <= 0.5\ngini = 0.253\nsamples = 4395\nvalue = [5975, 1043, 0]"] ;
12 -> 13 ;
14 [label="X[118] <= 0.5\ngini = 0.306\nsamples = 3444\nvalue = [4480, 1043, 0]"] ;
13 -> 14 ;
15 [label="X[23] <= 0.5\ngini = 0.348\nsamples = 2901\nvalue = [3610, 1043, 0]"] ;
14 -> 15 ;
16 [label="X[6] <= 0.5\ngini = 0.399\nsamples = 2356\nvalue = [2739, 1043, 0]"] ;
15 -> 16 ;
17 [label="X[55] <= 0.5\ngini = 0.436\nsamples = 2028\nvalue = [2207, 1043, 0]"] ;
16 -> 17 ;
18 [label="X[119] <= 0.5\ngini = 0.486\nsamples = 1567\nvalue = [1465, 1043, 0]"] ;
17 -> 18 ;
19 [label="X[30] <= 0.5\ngini = 0.253\nsamples = 1085\nvalue = [1465, 255, 0]"] ;
18 -> 19 ;
20 [label="X[47] <= 0.5\ngini = 0.256\nsamples = 1072\nvalue = [1440, 255, 0]"] ;
19 -> 20 ;
21 [label="X[87] <= 0.5\ngini = 0.254\nsamples = 1070\nvalue = [1440, 252, 0]"] ;
20 -> 21 ;
22 [label="X[111] <= 0.5\ngini = 0.155\nsamples = 964\nvalue = [1400, 130, 0]"] ;
21 -> 22 ;
23 [label="X[33] <= 0.5\ngini = 0.158\nsamples = 949\nvalue = [1373, 130, 0]"] ;
22 -> 23 ;
24 [label="X[26] <= 0.5\ngini = 0.166\nsamples = 903\nvalue = [1297, 130, 0]"] ;
23 -> 24 ;
25 [label="X[104] <= 0.5\ngini = 0.333\nsamples = 378\nvalue = [487, 130, 0]"] ;
24 -> 25 ;
26 [label="X[1] <= 0.5\ngini = 0.5\nsamples = 164\nvalue = [130, 130, 0]"] ;
25 -> 26 ;
27 [label="X[38] <= 0.5\ngini = 0.155\nsamples = 85\nvalue = [130, 12, 0]"] ;
26 -> 27 ;
28 [label="gini = 0.0\nsamples = 77\nvalue = [130, 0, 0]"] ;
27 -> 28 ;
29 [label="gini = 0.0\nsamples = 8\nvalue = [0, 12, 0]"] ;
27 -> 29 ;
30 [label="gini = 0.0\nsamples = 79\nvalue = [0, 118, 0]"] ;
26 -> 30 ;
31 [label="gini = 0.0\nsamples = 214\nvalue = [357, 0, 0]"] ;
25 -> 31 ;
32 [label="gini = 0.0\nsamples = 525\nvalue = [810, 0, 0]"] ;
24 -> 32 ;
33 [label="gini = 0.0\nsamples = 46\nvalue = [76, 0, 0]"] ;
23 -> 33 ;
34 [label="gini = 0.0\nsamples = 15\nvalue = [27, 0, 0]"] ;
22 -> 34 ;
35 [label="X[32] <= 0.5\ngini = 0.372\nsamples = 106\nvalue = [40, 122, 0]"] ;
21 -> 35 ;
36 [label="gini = 0.0\nsamples = 80\nvalue = [0, 122, 0]"] ;
35 -> 36 ;
37 [label="gini = 0.0\nsamples = 26\nvalue = [40, 0, 0]"] ;
35 -> 37 ;
38 [label="gini = 0.0\nsamples = 2\nvalue = [0, 3, 0]"] ;
20 -> 38 ;
39 [label="gini = 0.0\nsamples = 13\nvalue = [25, 0, 0]"] ;
19 -> 39 ;
40 [label="gini = 0.0\nsamples = 482\nvalue = [0, 788, 0]"] ;
18 -> 40 ;
41 [label="gini = 0.0\nsamples = 461\nvalue = [742, 0, 0]"] ;
17 -> 41 ;
42 [label="gini = 0.0\nsamples = 328\nvalue = [532, 0, 0]"] ;
16 -> 42 ;
43 [label="gini = 0.0\nsamples = 545\nvalue = [871, 0, 0]"] ;
15 -> 43 ;
44 [label="gini = 0.0\nsamples = 543\nvalue = [870, 0, 0]"] ;
14 -> 44 ;
45 [label="gini = 0.0\nsamples = 951\nvalue = [1495, 0, 0]"] ;
13 -> 45 ;
46 [label="gini = 0.0\nsamples = 2\nvalue = [0, 3, 0]"] ;
12 -> 46 ;
47 [label="gini = 0.0\nsamples = 2507\nvalue = [3911, 0, 0]"] ;
11 -> 47 ;
48 [label="gini = 0.0\nsamples = 1\nvalue = [0, 1, 0]"] ;
10 -> 48 ;
49 [label="X[27] <= 0.5\ngini = 0.161\nsamples = 19\nvalue = [3, 0, 31]"] ;
9 -> 49 ;
50 [label="X[16] <= 0.5\ngini = 0.114\nsamples = 18\nvalue = [2, 0, 31]"] ;
49 -> 50 ;
51 [label="gini = 0.0\nsamples = 16\nvalue = [0, 0, 31]"] ;
50 -> 51 ;
52 [label="gini = 0.0\nsamples = 2\nvalue = [2, 0, 0]"] ;
50 -> 52 ;
53 [label="gini = 0.0\nsamples = 1\nvalue = [1, 0, 0]"] ;
49 -> 53 ;
54 [label="gini = 0.0\nsamples = 283\nvalue = [430, 0, 0]"] ;
8 -> 54 ;
55 [label="gini = 0.0\nsamples = 4134\nvalue = [6512, 0, 0]"] ;
7 -> 55 ;
56 [label="gini = 0.0\nsamples = 5919\nvalue = [9356, 0, 0]"] ;
6 -> 56 ;
57 [label="gini = 0.0\nsamples = 536\nvalue = [840, 0, 0]"] ;
5 -> 57 ;
58 [label="gini = 0.0\nsamples = 1110\nvalue = [1780, 0, 0]"] ;
4 -> 58 ;
59 [label="X[18] <= 0.5\ngini = 0.324\nsamples = 105\nvalue = [25, 134, 7]"] ;
3 -> 59 ;
60 [label="X[22] <= 0.5\ngini = 0.339\nsamples = 99\nvalue = [25, 125, 7]"] ;
59 -> 60 ;
61 [label="X[34] <= 0.5\ngini = 0.278\nsamples = 92\nvalue = [25, 125, 0]"] ;
60 -> 61 ;
62 [label="X[49] <= 0.5\ngini = 0.309\nsamples = 79\nvalue = [25, 106, 0]"] ;
61 -> 62 ;
63 [label="X[28] <= 0.5\ngini = 0.312\nsamples = 77\nvalue = [25, 104, 0]"] ;
62 -> 63 ;
64 [label="X[45] <= 0.5\ngini = 0.297\nsamples = 76\nvalue = [23, 104, 0]"] ;
63 -> 64 ;
65 [label="X[4] <= 0.5\ngini = 0.173\nsamples = 71\nvalue = [11, 104, 0]"] ;
64 -> 65 ;
66 [label="X[50] <= 0.5\ngini = 0.296\nsamples = 42\nvalue = [11, 50, 0]"] ;
65 -> 66 ;
67 [label="X[10] <= 0.5\ngini = 0.391\nsamples = 8\nvalue = [11, 4, 0]"] ;
66 -> 67 ;
68 [label="gini = 0.0\nsamples = 2\nvalue = [0, 4, 0]"] ;
67 -> 68 ;
69 [label="gini = 0.0\nsamples = 6\nvalue = [11, 0, 0]"] ;
67 -> 69 ;
70 [label="gini = 0.0\nsamples = 34\nvalue = [0, 46, 0]"] ;
66 -> 70 ;
71 [label="gini = 0.0\nsamples = 29\nvalue = [0, 54, 0]"] ;
65 -> 71 ;
72 [label="gini = 0.0\nsamples = 5\nvalue = [12, 0, 0]"] ;
64 -> 72 ;
73 [label="gini = 0.0\nsamples = 1\nvalue = [2, 0, 0]"] ;
63 -> 73 ;
74 [label="gini = 0.0\nsamples = 2\nvalue = [0, 2, 0]"] ;
62 -> 74 ;
75 [label="gini = 0.0\nsamples = 13\nvalue = [0, 19, 0]"] ;
61 -> 75 ;
76 [label="gini = 0.0\nsamples = 7\nvalue = [0, 0, 7]"] ;
60 -> 76 ;
77 [label="gini = 0.0\nsamples = 6\nvalue = [0, 9, 0]"] ;
59 -> 77 ;
78 [label="X[44] <= 0.5\ngini = 0.025\nsamples = 8769\nvalue = [108, 63, 13610]"] ;
2 -> 78 ;
79 [label="X[47] <= 0.5\ngini = 0.021\nsamples = 8753\nvalue = [108, 38, 13610]"] ;
78 -> 79 ;
80 [label="X[3] <= 0.5\ngini = 0.016\nsamples = 8727\nvalue = [108, 1, 13610]"] ;
79 -> 80 ;
81 [label="X[11] <= 0.5\ngini = 0.005\nsamples = 8683\nvalue = [34, 1, 13610]"] ;
80 -> 81 ;
82 [label="X[10] <= 0.5\ngini = 0.005\nsamples = 8682\nvalue = [34, 0, 13610]"] ;
81 -> 82 ;
83 [label="X[37] <= 0.5\ngini = 0.002\nsamples = 8668\nvalue = [11, 0, 13610]"] ;
82 -> 83 ;
84 [label="gini = 0.0\nsamples = 8659\nvalue = [0, 0, 13610]"] ;
83 -> 84 ;
85 [label="gini = 0.0\nsamples = 9\nvalue = [11, 0, 0]"] ;
83 -> 85 ;
86 [label="gini = 0.0\nsamples = 14\nvalue = [23, 0, 0]"] ;
82 -> 86 ;
87 [label="gini = 0.0\nsamples = 1\nvalue = [0, 1, 0]"] ;
81 -> 87 ;
88 [label="gini = 0.0\nsamples = 44\nvalue = [74, 0, 0]"] ;
80 -> 88 ;
89 [label="gini = 0.0\nsamples = 26\nvalue = [0, 37, 0]"] ;
79 -> 89 ;
90 [label="gini = 0.0\nsamples = 16\nvalue = [0, 25, 0]"] ;
78 -> 90 ;
91 [label="gini = 0.0\nsamples = 524\nvalue = [800, 0, 0]"] ;
1 -> 91 ;
92 [label="X[41] <= 0.5\ngini = 0.244\nsamples = 128\nvalue = [29, 0, 175]"] ;
0 -> 92 [labeldistance=2.5, labelangle=-45, headlabel="False"] ;
93 [label="X[32] <= 0.5\ngini = 0.12\nsamples = 117\nvalue = [12, 0, 175]"] ;
92 -> 93 ;
94 [label="X[40] <= 0.5\ngini = 0.111\nsamples = 116\nvalue = [11, 0, 175]"] ;
93 -> 94 ;
95 [label="gini = 0.0\nsamples = 7\nvalue = [11, 0, 0]"] ;
94 -> 95 ;
96 [label="gini = 0.0\nsamples = 109\nvalue = [0, 0, 175]"] ;
94 -> 96 ;
97 [label="gini = 0.0\nsamples = 1\nvalue = [1, 0, 0]"] ;
93 -> 97 ;
98 [label="gini = 0.0\nsamples = 11\nvalue = [17, 0, 0]"] ;
92 -> 98 ;
}