digraph Tree {
node [shape=box] ;
0 [label="ua_agent_name_Firefox <= 0.5\ngini = 0.462\nsamples = 28285\nvalue = [29841, 1237, 13758]\nclass = HT"] ;
1 [label="ua_agent_name_Googlebot <= 0.5\ngini = 0.471\nsamples = 27288\nvalue = [28240, 1237, 13758]\nclass = HT"] ;
0 -> 1 [labeldistance=2.5, labelangle=45, headlabel="True"] ;
2 [label="ua_agent_name_Sogou web spider <= 0.5\ngini = 0.046\nsamples = 17687\nvalue = [27377, 446, 208]\nclass = HT"] ;
1 -> 2 ;
3 [label="ua_agent_version_major_1 <= 0.5\ngini = 0.034\nsamples = 17581\nvalue = [27377, 446, 39]\nclass = HT"] ;
2 -> 3 ;
4 [label="ua_agent_name_WhatsApp <= 0.5\ngini = 0.025\nsamples = 17491\nvalue = [27371, 317, 30]\nclass = HT"] ;
3 -> 4 ;
5 [label="ua_agent_name_Google Web Preview <= 0.5\ngini = 0.022\nsamples = 17464\nvalue = [27371, 274, 30]\nclass = HT"] ;
4 -> 5 ;
6 [label="ua_agent_name_UIWebView <= 0.5\ngini = 0.022\nsamples = 17463\nvalue = [27371, 271, 30]\nclass = HT"] ;
5 -> 6 ;
7 [label="ua_agent_version_major_6 <= 0.5\ngini = 0.022\nsamples = 16976\nvalue = [26588, 271, 30]\nclass = HT"] ;
6 -> 7 ;
8 [label="ua_agent_version_major_2 <= 0.5\ngini = 0.026\nsamples = 14330\nvalue = [22414, 271, 30]\nclass = HT"] ;
7 -> 8 ;
9 [label="ua_agent_name_Chrome <= 0.5\ngini = 0.025\nsamples = 14251\nvalue = [22314, 253, 30]\nclass = HT"] ;
8 -> 9 ;
10 [label="ua_agent_name_Edge <= 0.5\ngini = 0.042\nsamples = 8305\nvalue = [12816, 253, 30]\nclass = HT"] ;
9 -> 10 ;
11 [label="ua_agent_name_SamsungBrowser <= 0.5\ngini = 0.045\nsamples = 7807\nvalue = [12000, 253, 30]\nclass = HT"] ;
10 -> 11 ;
12 [label="ua_agent_name_Safari <= 0.5\ngini = 0.051\nsamples = 6905\nvalue = [10562, 253, 30]\nclass = HT"] ;
11 -> 12 ;
13 [label="ua_agent_version_major_11 <= 0.5\ngini = 0.152\nsamples = 2186\nvalue = [3166, 253, 30]\nclass = HT"] ;
12 -> 13 ;
14 [label="ua_agent_version_major_5 <= 0.5\ngini = 0.189\nsamples = 1731\nvalue = [2431, 253, 30]\nclass = HT"] ;
13 -> 14 ;
15 [label="ua_agent_name_Hacker <= 0.5\ngini = 0.12\nsamples = 1634\nvalue = [2396, 132, 30]\nclass = HT"] ;
14 -> 15 ;
16 [label="ua_agent_version_major_2~bl <= 0.5\ngini = 0.175\nsamples = 1089\nvalue = [1543, 132, 30]\nclass = HT"] ;
15 -> 16 ;
17 [label="ua_agent_name_Applebot <= 0.5\ngini = 0.163\nsamples = 1081\nvalue = [1543, 119, 30]\nclass = HT"] ;
16 -> 17 ;
18 [label="ua_agent_name_Chrome Webview <= 0.5\ngini = 0.039\nsamples = 1009\nvalue = [1543, 1, 30]\nclass = HT"] ;
17 -> 18 ;
19 [label="ua_agent_name_MiuiBrowser <= 0.5\ngini = 0.058\nsamples = 675\nvalue = [1009, 1, 30]\nclass = HT"] ;
18 -> 19 ;
20 [label="ua_agent_name_Mobile Safari <= 0.5\ngini = 0.059\nsamples = 665\nvalue = [995, 1, 30]\nclass = HT"] ;
19 -> 20 ;
21 [label="ua_agent_name_Internet Explorer <= 0.5\ngini = 0.059\nsamples = 662\nvalue = [992, 1, 30]\nclass = HT"] ;
20 -> 21 ;
22 [label="ua_agent_version_major_54 <= 0.5\ngini = 0.291\nsamples = 111\nvalue = [146, 1, 30]\nclass = HT"] ;
21 -> 22 ;
23 [label="ua_agent_version_major_52 <= 0.5\ngini = 0.332\nsamples = 95\nvalue = [118, 1, 30]\nclass = HT"] ;
22 -> 23 ;
24 [label="ua_agent_name_YandexBot <= 0.5\ngini = 0.352\nsamples = 89\nvalue = [107, 1, 30]\nclass = HT"] ;
23 -> 24 ;
25 [label="ua_agent_version_major_8 <= 0.5\ngini = 0.018\nsamples = 74\nvalue = [107, 1, 0]\nclass = HT"] ;
24 -> 25 ;
26 [label="ua_agent_name_snapchat <= 0.5\ngini = 0.019\nsamples = 73\nvalue = [104, 1, 0]\nclass = HT"] ;
25 -> 26 ;
27 [label="gini = 0.0\nsamples = 72\nvalue = [104, 0, 0]\nclass = HT"] ;
26 -> 27 ;
28 [label="gini = 0.0\nsamples = 1\nvalue = [0, 1, 0]\nclass = NHT-other"] ;
26 -> 28 ;
29 [label="gini = 0.0\nsamples = 1\nvalue = [3, 0, 0]\nclass = HT"] ;
25 -> 29 ;
30 [label="gini = 0.0\nsamples = 15\nvalue = [0, 0, 30]\nclass = NHT-search"] ;
24 -> 30 ;
31 [label="gini = 0.0\nsamples = 6\nvalue = [11, 0, 0]\nclass = HT"] ;
23 -> 31 ;
32 [label="gini = 0.0\nsamples = 16\nvalue = [28, 0, 0]\nclass = HT"] ;
22 -> 32 ;
33 [label="gini = 0.0\nsamples = 551\nvalue = [846, 0, 0]\nclass = HT"] ;
21 -> 33 ;
34 [label="gini = 0.0\nsamples = 3\nvalue = [3, 0, 0]\nclass = HT"] ;
20 -> 34 ;
35 [label="gini = 0.0\nsamples = 10\nvalue = [14, 0, 0]\nclass = HT"] ;
19 -> 35 ;
36 [label="gini = 0.0\nsamples = 334\nvalue = [534, 0, 0]\nclass = HT"] ;
18 -> 36 ;
37 [label="gini = 0.0\nsamples = 72\nvalue = [0, 118, 0]\nclass = NHT-other"] ;
17 -> 37 ;
38 [label="gini = 0.0\nsamples = 8\nvalue = [0, 13, 0]\nclass = NHT-other"] ;
16 -> 38 ;
39 [label="gini = 0.0\nsamples = 545\nvalue = [853, 0, 0]\nclass = HT"] ;
15 -> 39 ;
40 [label="ua_agent_name_Netscape <= 0.5\ngini = 0.348\nsamples = 97\nvalue = [35, 121, 0]\nclass = NHT-other"] ;
14 -> 40 ;
41 [label="ua_agent_name_Puffin <= 0.5\ngini = 0.032\nsamples = 76\nvalue = [2, 121, 0]\nclass = NHT-other"] ;
40 -> 41 ;
42 [label="gini = 0.0\nsamples = 75\nvalue = [0, 121, 0]\nclass = NHT-other"] ;
41 -> 42 ;
43 [label="gini = 0.0\nsamples = 1\nvalue = [2, 0, 0]\nclass = HT"] ;
41 -> 43 ;
44 [label="gini = 0.0\nsamples = 21\nvalue = [33, 0, 0]\nclass = HT"] ;
40 -> 44 ;
45 [label="gini = 0.0\nsamples = 455\nvalue = [735, 0, 0]\nclass = HT"] ;
13 -> 45 ;
46 [label="gini = 0.0\nsamples = 4719\nvalue = [7396, 0, 0]\nclass = HT"] ;
12 -> 46 ;
47 [label="gini = 0.0\nsamples = 902\nvalue = [1438, 0, 0]\nclass = HT"] ;
11 -> 47 ;
48 [label="gini = 0.0\nsamples = 498\nvalue = [816, 0, 0]\nclass = HT"] ;
10 -> 48 ;
49 [label="gini = 0.0\nsamples = 5946\nvalue = [9498, 0, 0]\nclass = HT"] ;
9 -> 49 ;
50 [label="ua_agent_name_UptimeRobot <= 0.5\ngini = 0.259\nsamples = 79\nvalue = [100, 18, 0]\nclass = HT"] ;
8 -> 50 ;
51 [label="ua_agent_name_Cliqzbot <= 0.5\ngini = 0.057\nsamples = 69\nvalue = [100, 3, 0]\nclass = HT"] ;
50 -> 51 ;
52 [label="ua_agent_name_Bingbot <= 0.5\ngini = 0.02\nsamples = 67\nvalue = [100, 1, 0]\nclass = HT"] ;
51 -> 52 ;
53 [label="ua_agent_name_SamsungBrowser <= 0.5\ngini = 0.061\nsamples = 21\nvalue = [31, 1, 0]\nclass = HT"] ;
52 -> 53 ;
54 [label="ua_agent_name_Dalvik <= 0.5\ngini = 0.105\nsamples = 12\nvalue = [17, 1, 0]\nclass = HT"] ;
53 -> 54 ;
55 [label="gini = 0.0\nsamples = 1\nvalue = [0, 1, 0]\nclass = NHT-other"] ;
54 -> 55 ;
56 [label="gini = 0.0\nsamples = 11\nvalue = [17, 0, 0]\nclass = HT"] ;
54 -> 56 ;
57 [label="gini = 0.0\nsamples = 9\nvalue = [14, 0, 0]\nclass = HT"] ;
53 -> 57 ;
58 [label="gini = 0.0\nsamples = 46\nvalue = [69, 0, 0]\nclass = HT"] ;
52 -> 58 ;
59 [label="gini = 0.0\nsamples = 2\nvalue = [0, 2, 0]\nclass = NHT-other"] ;
51 -> 59 ;
60 [label="gini = 0.0\nsamples = 10\nvalue = [0, 15, 0]\nclass = NHT-other"] ;
50 -> 60 ;
61 [label="gini = 0.0\nsamples = 2646\nvalue = [4174, 0, 0]\nclass = HT"] ;
7 -> 61 ;
62 [label="gini = 0.0\nsamples = 487\nvalue = [783, 0, 0]\nclass = HT"] ;
6 -> 62 ;
63 [label="gini = 0.0\nsamples = 1\nvalue = [0, 3, 0]\nclass = NHT-other"] ;
5 -> 63 ;
64 [label="gini = 0.0\nsamples = 27\nvalue = [0, 43, 0]\nclass = NHT-other"] ;
4 -> 64 ;
65 [label="ua_agent_name_Googlebot-Image <= 0.5\ngini = 0.192\nsamples = 90\nvalue = [6, 129, 9]\nclass = NHT-other"] ;
3 -> 65 ;
66 [label="ua_agent_name_Pinterestbot <= 0.5\ngini = 0.085\nsamples = 85\nvalue = [6, 129, 0]\nclass = NHT-other"] ;
65 -> 66 ;
67 [label="ua_agent_name_facebookexternalhit <= 0.5\ngini = 0.099\nsamples = 75\nvalue = [6, 109, 0]\nclass = NHT-other"] ;
66 -> 67 ;
68 [label="ua_agent_name_Dalvik <= 0.5\ngini = 0.149\nsamples = 44\nvalue = [6, 68, 0]\nclass = NHT-other"] ;
67 -> 68 ;
69 [label="ua_agent_name_Vivaldi <= 0.5\ngini = 0.056\nsamples = 41\nvalue = [2, 68, 0]\nclass = NHT-other"] ;
68 -> 69 ;
70 [label="ua_agent_name_LinkedInBot <= 0.5\ngini = 0.029\nsamples = 40\nvalue = [1, 68, 0]\nclass = NHT-other"] ;
69 -> 70 ;
71 [label="gini = 0.0\nsamples = 39\nvalue = [0, 68, 0]\nclass = NHT-other"] ;
70 -> 71 ;
72 [label="gini = 0.0\nsamples = 1\nvalue = [1, 0, 0]\nclass = HT"] ;
70 -> 72 ;
73 [label="gini = 0.0\nsamples = 1\nvalue = [1, 0, 0]\nclass = HT"] ;
69 -> 73 ;
74 [label="gini = 0.0\nsamples = 3\nvalue = [4, 0, 0]\nclass = HT"] ;
68 -> 74 ;
75 [label="gini = 0.0\nsamples = 31\nvalue = [0, 41, 0]\nclass = NHT-other"] ;
67 -> 75 ;
76 [label="gini = 0.0\nsamples = 10\nvalue = [0, 20, 0]\nclass = NHT-other"] ;
66 -> 76 ;
77 [label="gini = 0.0\nsamples = 5\nvalue = [0, 0, 9]\nclass = NHT-search"] ;
65 -> 77 ;
78 [label="gini = 0.0\nsamples = 106\nvalue = [0, 0, 169]\nclass = NHT-search"] ;
2 -> 78 ;
79 [label="ua_agent_version_major_AdsBot-Google-Mobile <= 0.5\ngini = 0.2\nsamples = 9601\nvalue = [863, 791, 13550]\nclass = NHT-search"] ;
1 -> 79 ;
80 [label="ua_agent_version_major_2 <= 0.5\ngini = 0.113\nsamples = 9101\nvalue = [863, 0, 13550]\nclass = NHT-search"] ;
79 -> 80 ;
81 [label="gini = 0.0\nsamples = 531\nvalue = [863, 0, 0]\nclass = HT"] ;
80 -> 81 ;
82 [label="gini = 0.0\nsamples = 8570\nvalue = [0, 0, 13550]\nclass = NHT-search"] ;
80 -> 82 ;
83 [label="gini = 0.0\nsamples = 500\nvalue = [0, 791, 0]\nclass = NHT-other"] ;
79 -> 83 ;
84 [label="gini = 0.0\nsamples = 997\nvalue = [1601, 0, 0]\nclass = HT"] ;
0 -> 84 [labeldistance=2.5, labelangle=-45, headlabel="False"] ;
}